svm_type c_svc
kernel_type rbf
gamma 0.0078125
nr_class 2
total_sv 92
rho 3.63159
label 0 1
nr_sv 44 48
SV
512 1:-0.998625 5:-0.986678 6:-0.978022 7:-0.97812 8:-0.982581 9:-1 10:-1 11:-1 12:-1 13:-1 14:-1 15:-1 16:-1 17:-1 18:-0.909091 19:-0.9893 20:-0.9893 21:-0.975309 22:-0.984483 23:-0.987206 
512 1:-0.930312 5:-1 6:-0.860806 7:-0.908664 8:-0.82331 9:-0.619048 10:-0.792934 11:-0.655005 12:-0.97479 13:-0.854208 14:-0.816349 15:-0.733333 16:-0.988984 17:-0.988984 18:-0.909091 19:-0.980973 20:-0.980973 21:-0.938272 22:-0.959288 23:-0.951662 
512 1:-0.998018 5:-0.995212 6:-0.831502 7:-0.998868 8:-0.995825 9:-0.952381 10:-0.999283 11:-0.999415 12:-0.991597 13:-0.996086 14:-0.996086 15:-1 16:-1 17:-1 18:-1 19:-1 20:-1 21:-0.740741 22:-0.998699 23:-0.995945 
512 1:-0.992229 5:-0.891757 6:-0.941392 7:-0.958373 8:-0.95622 9:-1 10:-1 11:-1 12:-1 13:-1 14:-1 15:-1 16:-1 17:-1 18:-0.909091 19:-0.989178 20:-0.989178 21:-0.91358 22:-0.946675 23:-0.956468 
512 1:-0.977691 5:-0.999376 6:-0.919414 7:-0.948947 8:-0.905743 9:-0.761905 10:-0.946791 11:-0.782092 12:-1 13:-1 14:-1 15:-1 16:-1 17:-1 18:-0.818182 19:-0.976618 20:-0.976618 21:-0.950617 22:-0.969784 23:-0.966808 
512 1:-0.978568 5:-0.998959 6:-0.89011 7:-0.931544 8:-0.932083 9:-0.952381 10:-0.439559 11:-0.542553 12:-0.94958 13:-0.976095 14:-0.97621 15:-1 16:-1 17:-1 18:-0.909091 19:-0.975241 20:-0.975241 21:-0.91358 22:-0.926319 23:-0.948276 
512 1:-0.982542 5:-1 6:-0.978022 7:-0.982333 8:-0.778682 9:-0.904762 10:-0.977289 11:-0.981462 12:-1 13:-1 14:-1 15:-1 16:-1 17:-1 18:-1 19:-1 20:-1 21:-0.987654 22:-0.388292 23:-0.589939 
512 1:-0.998086 5:-1 6:-0.992674 7:-0.939706 8:-0.951473 9:-1 10:-1 11:-1 12:-1 13:-1 14:-1 15:-1 16:-1 17:-1 18:-0.909091 19:-0.969944 20:-0.969944 21:-1 22:-0.980249 23:-0.98676 
512 1:-0.997235 5:-0.953789 6:-0.970696 7:-0.976699 8:-0.971964 9:-0.952381 10:-0.946722 11:-0.956513 12:-1 13:-1 14:-1 15:-1 16:-1 17:-1 18:-0.909091 19:-0.993227 20:-0.993227 21:-0.975309 22:-0.989535 23:-0.971816 
301.7393526188683 1:-0.975383 5:-0.999376 6:-0.978022 7:-0.981412 8:-0.687921 9:-0.952381 10:-0.969365 11:-0.974995 12:-1 13:-1 14:-1 15:-1 16:-1 17:-1 18:-1 19:-1 20:-1 21:-0.975309 22:-0.984393 23:-0.607924 
85.41805780467979 1:-0.958689 5:-1 6:-0.992674 7:0.301431 8:0.0474465 9:-1 10:-1 11:-1 12:-1 13:-1 14:-1 15:-1 16:-1 17:-1 18:-1 19:-1 20:-1 21:-0.987654 22:0.495062 23:0.00222022 
512 1:-0.962381 5:-0.999167 6:-0.838828 7:-0.987467 8:-0.917059 9:-0.333333 10:-0.975615 11:-0.921612 12:-0.991597 13:-0.37356 14:-0.37356 15:-1 16:-1 17:-1 18:-0.909091 19:-0.994887 20:-0.994887 21:-0.925926 22:-0.998699 23:-0.998033 
472.4289396340692 1:-0.999756 5:-0.999376 6:-0.92674 7:-0.998868 8:-0.998877 9:-1 10:-1 11:-1 12:-1 13:-1 14:-1 15:-1 16:-1 17:-1 18:-1 19:-1 20:-1 21:-0.876543 22:-0.998699 23:-0.998925 
499.4927671094045 1:-0.895158 5:-0.998751 6:-0.956044 7:-0.949369 8:-0.240496 9:-0.904762 10:-0.970697 11:-0.976082 12:-1 13:-1 14:-1 15:-0.866667 16:-0.97955 17:-0.97955 18:-0.727273 19:-0.870271 20:-0.387235 21:-1 22:-0.941836 23:-0.961009 
512 1:-0.990627 5:-0.998543 6:-0.912088 7:-0.998894 8:-0.963446 9:-0.857143 10:-0.791909 11:-0.807292 12:-1 13:-1 14:-1 15:-1 16:-1 17:-1 18:-1 19:-1 20:-1 21:-0.888889 22:-0.99873 23:-0.996573 
512 1:-0.973528 5:-0.821399 6:-0.912088 7:-0.941496 8:-0.896758 9:-0.761905 10:-0.906013 11:-0.917654 12:-0.991597 13:-0.627971 14:-0.627971 15:-1 16:-1 17:-1 18:-0.909091 19:-0.96226 20:-0.96226 21:-0.938272 22:-0.940596 23:-0.951439 
347.5235353780508 1:-0.991588 5:-1 6:-0.985348 7:-0.867248 8:-0.85783 9:-1 10:-1 11:-1 12:-0.991597 13:-0.824419 14:-0.824419 15:-1 16:-1 17:-1 18:-0.909091 19:-0.990272 20:-0.990272 21:-1 22:-0.847496 23:-0.897769 
512 1:-0.919942 5:-0.953789 6:-0.897436 7:-0.843683 8:-0.729349 9:-0.619048 10:-0.416403 11:-0.433557 12:-1 13:-1 14:-1 15:-1 16:-1 17:-1 18:-0.818182 19:-0.972057 20:-0.972057 21:-0.950617 22:-0.820426 23:-0.911962 
512 1:-0.984611 5:-0.998751 6:-0.934066 7:-0.893498 8:-0.921975 9:-0.952381 10:-0.929953 11:-0.942826 12:-0.941176 13:-0.946637 14:-0.950551 15:-0.866667 16:-0.993479 17:-0.993479 18:-1 19:-1 20:-1 21:-1 22:-0.840207 23:-0.892882 
512 1:-0.91097 5:-0.576395 6:-0.919414 7:-0.94176 8:-0.623776 9:-0.904762 10:-0.490343 11:-0.584005 12:-0.97479 13:-0.338497 14:-0.314567 15:-1 16:-1 17:-1 18:-0.818182 19:-0.997604 20:-0.997604 21:-0.950617 22:-0.950486 23:-0.915774 
512 1:-0.998806 5:-1 6:-0.934066 7:-0.998894 8:-0.993961 9:-0.952381 10:-0.9166 11:-0.931927 12:-1 13:-1 14:-1 15:-1 16:-1 17:-1 18:-1 19:-1 20:-1 21:-0.901235 22:-0.99873 23:-0.999067 
512 1:-0.900388 5:0.114904 6:-0.457875 7:-0.97633 8:-0.932655 9:-0.47619 10:-0.911374 11:-0.879464 12:-0.94958 13:-0.980022 14:-0.883654 15:-0.866667 16:-0.858194 17:-0.858194 18:-0.727273 19:-0.996081 20:-0.979396 21:-0.345679 22:-0.980007 23:-0.970417 
512 1:-0.917255 5:-0.861574 6:-0.78022 7:-0.962454 8:-0.864654 9:-0.666667 10:-0.827599 11:-0.523263 12:-1 13:-1 14:-1 15:-1 16:-1 17:-1 18:-0.818182 19:-0.870684 20:-0.870684 21:-0.740741 22:-0.964763 23:-0.959002 
512 1:-0.983821 5:-0.998959 6:-0.941392 7:-0.972618 8:-0.908858 9:-0.952381 10:-0.197042 11:-0.344605 12:-1 13:-1 14:-1 15:-1 16:-1 17:-1 18:-0.818182 19:-0.995446 20:-0.995446 21:-0.938272 22:-0.958381 23:-0.952656 
512 1:-0.99195 5:-1 6:-0.934066 7:-0.983386 8:-0.959186 9:-0.809524 10:-0.950923 11:-0.960918 12:-1 13:-1 14:-1 15:-1 16:-1 17:-1 18:-1 19:-1 20:-1 21:-0.938272 22:-0.990714 23:-0.953872 
512 1:-0.968691 5:-0.998751 6:-0.824176 7:-0.922223 8:-0.936512 9:-1 10:-1 11:-1 12:-1 13:-1 14:-1 15:-1 16:-1 17:-1 18:-0.909091 19:-0.975294 20:-0.975294 21:-0.716049 22:-0.910682 23:-0.939436 
512 1:-0.988685 5:-1 6:-0.934066 7:-0.980411 8:-0.942636 9:-0.857143 10:-0.925889 11:-0.947844 12:-1 13:-1 14:-1 15:-1 16:-1 17:-1 18:-1 19:-1 20:-1 21:-0.925926 22:-0.998276 23:-0.937834 
512 1:-0.997172 5:-0.997502 6:-0.970696 7:-0.956925 8:-0.971329 9:-1 10:-1 11:-1 12:-1 13:-1 14:-1 15:-1 16:-1 17:-1 18:-0.818182 19:-0.989407 20:-0.989407 21:-0.975309 22:-0.950516 23:-0.972972 
240.6620065300188 1:-0.998005 5:-1 6:-0.934066 7:-0.9891 8:-0.989892 9:-0.619048 10:-0.985861 11:-0.988682 12:-1 13:-1 14:-1 15:-1 16:-1 17:-1 18:-1 19:-1 20:-1 21:-0.987654 22:-0.976922 23:-0.984529 
512 1:-0.997865 5:-0.999792 6:-0.912088 7:-0.998868 8:-0.991693 9:-0.857143 10:-0.988661 11:-0.969141 12:-1 13:-1 14:-1 15:-1 16:-1 17:-1 18:-1 19:-1 20:-1 21:-0.888889 22:-0.998699 23:-0.996391 
512 1:-0.997991 5:-1 6:-0.956044 7:-0.998262 8:-0.985463 9:-0.952381 10:-0.961852 11:-0.968862 12:-1 13:-1 14:-1 15:-1 16:-1 17:-1 18:-0.909091 19:-0.97955 20:-0.97955 21:-0.950617 22:-0.998004 23:-0.995884 
512 1:-0.826568 5:-0.695878 6:-0.721612 7:-0.950475 8:-0.774507 10:-0.961066 11:-0.886879 12:-0.941176 13:-0.858465 14:-0.74414 15:-0.866667 16:-0.593063 17:-0.593063 18:-0.909091 19:-0.985604 20:-0.985604 21:-0.901235 22:-0.982003 23:-0.895336 
69.16514555197189 1:-0.94946 5:-1 6:-0.956044 7:-0.606719 8:-0.633884 9:-1 10:-1 11:-1 12:-1 13:-1 14:-1 15:-0.866667 16:-0.916008 17:-0.916008 18:-1 19:-1 20:-1 21:-0.938272 22:-0.750102 23:-0.689312 
512 1:-0.997719 5:-0.996461 6:-0.802198 7:-0.998868 8:-0.995889 9:-0.952381 10:-0.980294 11:-0.983915 12:-1 13:-1 14:-1 15:-1 16:-1 17:-1 18:-1 19:-1 20:-1 21:-0.679012 22:-0.998699 23:-0.99635 
512 1:-0.988415 5:-1 6:-0.970696 7:-0.96277 8:-0.882517 9:-0.904762 10:-0.944024 11:-0.954311 12:-1 13:-1 14:-1 15:-1 16:-1 17:-1 18:-0.909091 19:-0.82924 20:-0.82924 21:-0.987654 22:-0.967757 23:-0.978386 
512 1:-0.565961 5:-0.0626561 6:-0.450549 7:-0.925778 8:-0.710405 9:-0.0952381 10:-0.797852 11:-0.516182 12:-0.840336 13:-0.968521 14:-0.967428 15:-1 16:-1 17:-1 18:-0.454545 19:-0.992423 20:-0.991581 21:-0.617284 22:-0.910198 23:-0.585884 
512 1:-0.912828 5:-0.698585 6:-0.868132 7:-0.877358 8:-0.767345 9:-0.809524 10:-0.0953023 11:-0.227469 12:-0.92437 13:-0.940804 14:-0.933014 15:-1 16:-1 17:-1 18:-0.818182 19:-0.994558 20:-0.994558 21:-0.962963 22:-0.92514 23:-0.752187 
512 1:-0.987332 5:-0.998751 6:-0.985348 7:-0.701241 8:-0.785887 9:-1 10:-1 11:-1 12:-1 13:-1 14:-1 15:-1 16:-1 17:-1 18:-0.909091 19:-0.872912 20:-0.872912 21:-0.987654 22:-0.792689 23:-0.861029 
512 1:-0.880399 5:-0.311615 6:-0.74359 7:-0.883388 8:-0.831532 9:-0.142857 10:-0.777838 11:-0.711008 12:-0.966387 13:-0.827927 14:-0.762758 15:-1 16:-1 17:-1 18:-0.909091 19:-0.995163 20:-0.995163 21:-0.851852 22:-0.994495 23:-0.962125 
300.7326512637541 1:-0.958926 5:-1 6:-0.956044 7:-0.975645 8:-0.702458 9:-0.857143 10:-0.973498 11:-0.708304 12:-0.991597 13:-0.189693 14:-0.189693 15:-1 16:-1 17:-1 18:-0.909091 19:-0.996188 20:-0.996188 21:-0.987654 22:-0.960135 23:-0.973276 
512 1:-0.911842 5:-0.97856 6:-0.912088 7:-0.584524 8:-0.656114 9:-0.904762 10:-0.376377 11:-0.490982 12:-0.941176 13:-0.677738 14:-0.709789 15:-1 16:-1 17:-1 18:-0.909091 19:-0.995178 20:-0.995178 21:-0.975309 22:-0.887119 23:-0.905676 
468.1987856811126 1:-0.975812 5:-1 6:-0.956044 7:-0.937784 8:-0.824793 9:-0.857143 10:-0.289835 11:-0.519471 12:-0.983193 13:-0.985703 14:-0.985703 15:-1 16:-1 17:-1 18:-1 19:-1 20:-1 21:-0.987654 22:-0.940777 23:-0.9603 
512 1:-0.824568 5:-0.920691 6:-0.809524 7:-0.86135 8:-0.670523 9:-0.190476 10:-0.808439 11:-0.523514 12:-0.991597 13:0.386218 14:0.386218 15:-1 16:-1 17:-1 18:-0.636364 19:-0.993387 20:-0.984907 21:-0.950617 22:-0.967939 23:-0.950304 
512 1:-0.944852 5:-0.998959 6:-0.941392 7:-0.800319 8:-0.689277 9:-0.809524 10:-0.869367 11:-0.342319 12:-1 13:-1 14:-1 15:-1 16:-1 17:-1 18:-1 19:-1 20:-1 21:-0.950617 22:-0.642787 23:-0.847545 
-86.83781570422506 1:-0.831886 5:-0.835346 6:-0.611722 7:-0.963429 8:-0.842128 10:-0.899524 11:-0.828032 12:-0.941176 13:-0.779698 14:-0.685249 15:-1 16:-1 17:-1 18:-0.818182 19:-0.962903 20:-0.962903 21:-0.716049 22:-0.986812 23:-0.924249 
-512 1:-0.922703 5:-0.977727 6:-0.714286 7:-0.977594 8:-0.902013 9:-0.761905 10:-0.970219 11:-0.82859 12:-1 13:-1 14:-1 15:-1 16:-1 17:-1 18:-0.909091 19:-0.951269 20:-0.951269 21:-0.592593 22:-0.975621 23:-0.91184 
-167.9005130780903 1:-0.750254 5:-0.998959 6:-0.802198 7:-0.906215 8:-0.547701 9:-0.952381 10:-0.499804 11:-0.591726 12:-1 13:-1 14:-1 15:-1 16:-1 17:-1 18:-0.909091 19:-0.924183 20:-0.924183 21:-0.691358 22:-0.898522 23:-0.553077 
-512 1:-0.920895 5:-1 6:-0.882784 7:-0.911823 8:-0.764039 9:-0.809524 10:-0.167227 11:-0.187328 12:-1 13:-1 14:-1 15:-1 16:-1 17:-1 18:-0.818182 19:-0.936858 20:-0.936858 21:-0.876543 22:-0.935151 23:-0.896451 
-512 1:-0.922244 5:-0.998127 6:-0.875458 7:-0.884625 8:-0.780949 9:-1 10:-1 11:-1 12:-0.983193 13:-0.33349 14:-0.33349 15:-1 16:-1 17:-1 18:-0.909091 19:-0.94944 20:-0.94944 21:-0.82716 22:-0.891293 23:-0.899208 
-512 1:-0.998978 5:-1 6:-0.985348 7:-0.979595 8:-0.982729 9:-0.904762 10:-0.975274 11:-0.979818 12:-1 13:-1 14:-1 15:-1 16:-1 17:-1 18:-1 19:-1 20:-1 21:-1 22:-0.969844 23:-0.979785 
-512 1:-0.985351 5:-0.899251 6:-0.846154 7:-1 8:-0.966243 9:-0.904762 10:-0.559434 11:-0.640398 12:-1 13:-1 14:-1 15:-0.866667 16:-0.999667 17:-0.999667 18:-1 19:-1 20:-1 21:-0.777778 22:-1 23:-0.990247 
-512 1:-0.920775 5:-0.995004 6:-0.765568 7:-0.972828 8:-0.878258 9:-0.761905 10:-0.499804 11:-0.528531 12:-1 13:-1 14:-1 15:-1 16:-1 17:-1 18:-0.909091 19:-0.919178 20:-0.919178 21:-0.679012 22:-0.978979 23:-0.929075 
-512 1:-0.933184 5:-0.998751 6:-0.846154 7:-0.944919 8:-0.846006 9:-0.52381 10:-0.872441 11:-0.764419 12:-1 13:-1 14:-1 15:-0.866667 16:-0.856598 17:-0.856598 18:-0.909091 19:-0.98617 20:-0.98617 21:-0.888889 22:-0.982306 23:-0.951257 
-261.7200870183966 1:-0.891262 5:-0.862406 6:-0.85348 7:-0.941312 8:-0.737423 9:-0.904762 10:0.3718 11:0.1197 12:-0.983193 13:-0.636168 14:-0.636168 15:-0.866667 16:-0.862011 17:-0.862011 18:-0.909091 19:-0.853494 20:-0.853494 21:-0.82716 22:-0.952241 23:-0.924553 
-512 1:-0.993764 5:-0.977727 6:-0.978022 7:-0.917721 8:-0.920937 9:-0.904762 10:-0.964208 11:-0.970786 12:-1 13:-1 14:-1 15:-1 16:-1 17:-1 18:-1 19:-1 20:-1 21:-0.987654 22:-0.805998 23:-0.86995 
-512 1:-0.993764 5:-0.998127 6:-0.978022 7:-0.917721 8:-0.920937 9:-0.904762 10:-0.964208 11:-0.970786 12:-1 13:-1 14:-1 15:-1 16:-1 17:-1 18:-1 19:-1 20:-1 21:-0.987654 22:-0.805998 23:-0.86995 
-512 1:-1 5:-1 6:-1 7:-1 8:-1 9:-1 10:-1 11:-1 12:-1 13:-1 14:-1 15:-1 16:-1 17:-1 18:-1 19:-1 20:-1 21:-1 22:-1 23:-1 
-512 1:-0.895748 5:0.170483 6:-0.70696 7:-0.969774 8:-0.871074 9:-0.142857 10:-0.848397 11:-0.780866 12:-1 13:-1 14:-1 15:-1 16:-1 17:-1 18:-0.545455 19:-0.962857 20:-0.932725 21:-0.790123 22:-0.998972 23:-0.927899 
-512 1:-0.884921 5:-0.997918 6:-0.912088 7:-0.823488 8:-0.551113 9:-0.666667 10:-0.693653 11:-0.232877 12:-1 13:-1 14:-1 15:-1 16:-1 17:-1 18:-0.727273 19:-0.802521 20:-0.79587 21:-0.975309 22:-0.998941 23:-0.981488 
-39.34949391522221 1:-0.754064 5:-0.887594 6:-0.655678 7:-0.857164 8:-0.740178 9:-0.380952 10:-0.789416 11:-0.607588 12:-0.983193 13:-0.350685 14:-0.350685 15:-0.466667 16:-0.99468 17:-0.889318 18:-0.818182 19:-0.965651 20:-0.965651 21:-0.679012 22:-0.928981 23:-0.893774 
-512 1:-0.999659 5:-1 6:-1 7:-0.978515 8:-0.982708 9:-1 10:-1 11:-1 12:-1 13:-1 14:-1 15:-1 16:-1 17:-1 18:-1 19:-1 20:-1 21:-1 22:-0.975319 23:-0.983455 
-512 1:-0.94265 5:-1 6:-0.882784 7:-0.791788 8:-0.828926 9:-0.904762 10:-0.844709 11:-0.873247 12:-0.92437 13:-0.88969 14:-0.851006 15:-1 16:-1 17:-1 18:-0.727273 19:-0.984142 20:-0.98069 21:-0.975309 22:-0.952664 23:-0.898255 
-512 1:-0.975822 5:-0.910491 6:-0.941392 7:-0.902792 8:-0.863785 9:-1 10:-1 11:-1 12:-0.97479 13:-0.95308 14:-0.877541 15:-1 16:-1 17:-1 18:-0.909091 19:-0.981264 20:-0.981264 21:-0.950617 22:-0.861924 23:-0.892537 
-512 1:-0.993764 5:-0.977102 6:-0.978022 7:-0.917721 8:-0.920937 9:-0.904762 10:-0.964208 11:-0.970786 12:-1 13:-1 14:-1 15:-1 16:-1 17:-1 18:-1 19:-1 20:-1 21:-0.987654 22:-0.805998 23:-0.86995 
-128.3234670310323 1:-0.774582 5:-0.592839 6:-0.831502 7:-0.962033 8:-0.523713 9:-0.809524 10:-0.389013 11:-0.239177 12:-1 13:-1 14:-1 15:-1 16:-1 17:-1 18:-0.727273 19:-0.937562 20:-0.905103 21:-0.802469 22:-0.968725 23:-0.5312 
-512 1:-0.968226 5:-0.890716 6:-0.802198 7:-0.967905 8:-0.942467 9:-0.904762 10:-0.743584 11:-0.790706 12:-1 13:-1 14:-1 15:-1 16:-1 17:-1 18:-0.727273 19:-0.971728 20:-0.972003 21:-0.728395 22:-0.976287 23:-0.9559 
-512 1:-0.999334 5:-0.998335 6:-1 7:-0.958057 8:-0.966243 9:-1 10:-1 11:-1 12:-1 13:-1 14:-1 15:-1 16:-1 17:-1 18:-1 19:-1 20:-1 21:-1 22:-0.951817 23:-0.9677 
-242.1425456779014 1:-0.788423 5:1 6:-0.655678 7:-0.940654 8:-0.776478 9:-0.190476 10:-0.876983 11:-0.707803 12:-0.983193 13:-0.717706 14:-0.717706 15:-1 16:-1 17:-1 18:-0.181818 19:-0.98852 20:-0.96813 21:-0.765432 22:-0.968422 23:-0.750423 
-512 1:-0.993764 5:-0.975021 6:-0.978022 7:-0.917721 8:-0.920937 9:-0.904762 10:-0.964208 11:-0.970786 12:-1 13:-1 14:-1 15:-1 16:-1 17:-1 18:-1 19:-1 20:-1 21:-0.987654 22:-0.805998 23:-0.86995 
-401.257357144064 1:-0.946344 5:-0.90612 6:-0.692308 7:-0.97604 8:-0.936724 9:-0.666667 10:-0.615546 11:-0.664483 12:-1 13:-1 14:-1 15:-1 16:-1 17:-1 18:-0.636364 19:-0.991566 20:-0.978279 21:-0.617284 22:-0.974018 23:-0.979237 
-512 1:-0.905833 5:-0.86761 6:-0.875458 7:-0.80361 8:-0.734711 9:-0.904762 10:-0.478629 11:-0.574443 12:-0.991597 13:-0.408432 14:-0.408432 15:-1 16:-1 17:-1 18:-0.818182 19:-0.953542 20:-0.953542 21:-0.851852 22:-0.776719 23:-0.78769 
-512 1:-0.918813 5:-0.958368 6:-0.787546 7:-0.953187 8:-0.862768 9:-0.47619 10:-0.911477 11:-0.814652 12:-0.97479 13:-0.862214 14:-0.873512 15:-1 16:-1 17:-1 18:-0.727273 19:-0.865067 20:-0.848634 21:-0.851852 22:-0.969995 23:-0.950182 
-512 1:-0.905276 5:-0.933181 6:-0.875458 7:-0.889628 8:-0.733143 9:-0.666667 10:-0.796793 11:-0.479553 12:-0.983193 13:-0.589757 14:-0.589757 15:-1 16:-1 17:-1 18:-0.909091 19:-0.967472 20:-0.967472 21:-0.91358 22:-0.972597 23:-0.931123 
-512 1:-0.975365 5:-0.998543 6:-0.941392 7:-0.856611 8:-0.861199 9:-1 10:-1 11:-1 12:-1 13:-1 14:-1 15:-1 16:-1 17:-1 18:-0.909091 19:-0.953305 20:-0.953305 21:-0.91358 22:-0.83697 23:-0.866057 
-512 1:-0.788318 5:-0.891549 6:-0.619048 7:-0.925119 8:-0.797478 9:-0.47619 10:-0.925889 11:-0.814986 12:-0.731092 13:-0.962027 14:-0.835006 15:-1 16:-1 17:-1 18:-0.909091 19:-0.950098 20:-0.950098 21:-0.901235 22:-0.998941 23:-0.974006 
-512 1:-0.935769 5:-0.998543 6:-0.758242 7:-0.927884 8:-0.904217 9:-0.904762 10:-0.924489 11:-0.938366 12:-0.815126 13:-0.961963 14:-0.933954 15:-1 16:-1 17:-1 18:-0.909091 19:-0.975256 20:-0.975256 21:-0.901235 22:-0.984756 23:-0.928608 
-512 1:-0.86581 5:-0.998335 6:-0.868132 7:-0.925751 8:-0.641852 9:-0.666667 10:-0.803794 11:-0.73908 12:-0.94958 13:-0.405026 14:-0.470513 15:-1 16:-1 17:-1 18:-0.909091 19:-0.993387 20:-0.993387 21:-0.950617 22:-0.978979 23:-0.980758 
-512 1:-0.999967 5:-0.999792 6:-1 7:-0.99792 8:-0.998326 9:-1 10:-1 11:-1 12:-1 13:-1 14:-1 15:-1 16:-1 17:-1 18:-1 19:-1 20:-1 21:-1 22:-0.997611 23:-0.998398 
-512 1:-0.993764 5:-0.978143 6:-0.978022 7:-0.917721 8:-0.920937 9:-0.904762 10:-0.964208 11:-0.970786 12:-1 13:-1 14:-1 15:-1 16:-1 17:-1 18:-1 19:-1 20:-1 21:-0.987654 22:-0.805998 23:-0.86995 
-512 1:-0.993764 5:-0.975645 6:-0.978022 7:-0.917721 8:-0.920937 9:-0.904762 10:-0.964208 11:-0.970786 12:-1 13:-1 14:-1 15:-1 16:-1 17:-1 18:-1 19:-1 20:-1 21:-0.987654 22:-0.805998 23:-0.86995 
-512 1:-0.999963 5:-1 6:-1 7:-0.997683 8:-0.998135 9:-1 10:-1 11:-1 12:-1 13:-1 14:-1 15:-1 16:-1 17:-1 18:-1 19:-1 20:-1 21:-1 22:-0.997338 23:-0.998216 
-512 1:-0.93028 5:-0.762906 6:-0.794872 7:-0.956899 8:-0.878089 9:-0.571429 10:-0.801165 11:-0.736515 12:-1 13:-1 14:-1 15:-0.866667 16:-0.996102 17:-0.996102 18:-0.818182 19:-0.887078 20:-0.887078 21:-0.802469 22:-0.980188 23:-0.939274 
-1.252686782261071 1:-0.819025 5:-0.996461 6:-0.567766 7:-0.949816 8:-0.847065 9:-0.619048 10:-0.89423 11:-0.834806 12:-0.680672 13:-0.960718 14:-0.883069 15:-1 16:-1 17:-1 18:-0.818182 19:-0.990816 20:-0.990816 21:-0.864198 22:-0.984967 23:-0.943248 
-512 1:-0.955854 5:-0.611782 6:-0.875458 7:-0.947315 8:-0.87563 9:-0.857143 10:-0.739144 11:-0.724918 12:-0.957983 13:-0.976553 14:-0.97288 15:-0.866667 16:-0.993169 17:-0.993169 18:-0.818182 19:-0.979404 20:-0.979404 21:-0.925926 22:-0.944074 23:-0.833088 
-1.078879843639635 1:-0.915075 5:-0.898418 6:-0.846154 7:-0.909401 8:-0.804259 9:-0.761905 10:-0.706733 11:-0.63538 12:-1 13:-1 14:-1 15:-1 16:-1 17:-1 18:-0.454545 19:-0.941917 20:-0.878927 21:-0.876543 22:-0.979523 23:-0.920924 
-329.3717011937467 1:-0.805425 5:-0.654663 6:-0.85348 7:-0.792578 8:-0.530155 9:-0.380952 10:-0.72118 11:-0.455301 12:-0.991597 13:1 14:1 15:-0.866667 16:-0.98802 17:-0.98802 18:-0.818182 19:-0.883114 20:-0.883114 21:-0.962963 22:-0.995282 23:-0.900952 
-512 1:-0.999705 5:-1 6:-1 7:-0.981385 8:-0.985018 9:-1 10:-1 11:-1 12:-1 13:-1 14:-1 15:-1 16:-1 17:-1 18:-1 19:-1 20:-1 21:-1 22:-0.978616 23:-0.985665 
-512 1:-0.971144 5:-0.946295 6:-0.941392 7:-0.836679 8:-0.837423 9:-1 10:-1 11:-1 12:-0.97479 13:-0.937245 14:-0.933153 15:-1 16:-1 17:-1 18:-0.909091 19:-0.876103 20:-0.876103 21:-0.950617 22:-0.805272 23:-0.849613 
-512 1:-0.92397 5:-0.820774 6:-0.677656 7:-0.997973 8:-0.914325 9:0.238095 10:-0.985656 11:-0.863714 12:-1 13:-1 14:-1 15:-1 16:-1 17:-1 18:-0.818182 19:-0.965337 20:-0.965337 21:-0.802469 22:-0.998699 23:-0.945417 
-512 1:-0.993764 5:-0.998959 6:-0.978022 7:-0.917721 8:-0.920937 9:-0.904762 10:-0.964208 11:-0.970786 12:-1 13:-1 14:-1 15:-1 16:-1 17:-1 18:-1 19:-1 20:-1 21:-0.987654 22:-0.805998 23:-0.86995 
-102.1266941833513 1:-0.635994 5:-0.816819 6:-0.794872 7:-0.925883 8:-0.363488 9:-0.285714 10:-0.875924 11:-0.738299 12:-1 13:-1 14:-1 15:-0.866667 16:1 17:1 18:-0.727273 19:-0.983254 20:-0.975692 21:-0.888889 22:-0.949458 23:-0.939071 
-512 1:-0.956677 5:-0.998959 6:-0.941392 7:-0.73152 8:-0.755902 9:-0.952381 10:-0.499804 11:-0.591726 12:-0.983193 13:-0.693712 14:-0.693712 15:-1 16:-1 17:-1 18:-1 19:-1 20:-1 21:-0.938272 22:-0.81973 23:-0.862042 
