svm_type c_svc
kernel_type rbf
gamma 0.00012207
nr_class 2
total_sv 101
rho 6.2082
label 0 1
nr_sv 53 48
SV
5334.711973243276 1:-0.990553 3:-0.978034 5:-0.999651 6:-0.957055 7:-0.940285 8:-0.965096 9:-0.987779 10:-0.977582 11:-0.906977 12:-0.96494 13:-0.948118 14:-0.973012 15:-0.89377 16:-0.983193 17:-0.987019 18:-0.989279 19:-0.994041 20:-0.99489 21:-1 22:-1 23:-1 24:-1 25:-1 26:-1 27:-1 28:-1 29:-1 30:-1 31:-0.987654 32:-0.967572 33:-0.990014 34:-0.999636 35:-0.999901 
32768 1:-0.919971 3:-0.787923 5:-0.933174 6:-0.680982 7:-0.962112 8:-0.955361 9:-1 10:-0.988791 11:-0.72093 12:-0.976162 13:-0.953436 14:-0.998852 15:-0.962389 16:-0.932773 17:-0.990096 18:-0.963336 19:-0.999861 20:-0.992157 21:-1 22:-1 23:-1 24:-1 25:-1 26:-0.707317 27:-0.986499 28:-0.986499 29:-0.996803 30:-0.996164 31:-0.679012 32:-0.970466 33:-0.961778 34:-1 35:-0.989134 
32768 1:-0.986979 3:-0.991118 5:-1 6:-0.96319 7:-0.975066 8:-0.945011 9:-1 10:-0.989477 11:-0.953488 12:-0.83617 13:-0.83617 14:-0.906977 15:-0.906977 16:-1 17:-1 18:-1 19:-1 20:-1 21:-1 22:-1 23:-1 24:-1 25:-1 26:-0.95122 27:-0.996403 28:-0.996403 29:-1 30:-1 31:-0.962963 32:-0.978436 33:-0.993544 34:-1 35:-1 
32768 1:-0.994773 3:-0.990508 5:-1 6:-0.840491 7:-0.998894 8:-0.994284 9:-1 10:-0.998056 11:-0.953488 12:-0.936048 13:-0.936048 14:-0.932529 15:-0.932529 16:-1 17:-1 18:-1 19:-1 20:-1 21:-1 22:-1 23:-1 24:-1 25:-1 26:-1 27:-1 28:-1 29:-1 30:-1 31:-0.703704 32:-0.998854 33:-0.999395 34:-1 35:-1 
6867.453030898484 1:-0.96256 3:-0.994804 5:-1 6:-0.993865 7:0.493714 8:-0.446576 9:-0.501047 10:-0.836555 11:-1 12:-1 13:-1 14:-1 15:-1 16:-1 17:-1 18:-1 19:-1 20:-1 21:-1 22:-1 23:-1 24:-1 25:-1 26:-1 27:-1 28:-1 29:-1 30:-1 31:-0.987654 32:0.548553 33:-0.523108 34:-0.480364 35:-0.858836 
32768 1:-0.632729 3:0.00064246 5:-0.764014 6:-0.466258 7:-0.935177 8:-0.876618 9:-0.997556 10:-0.955736 11:-0.837209 12:-0.86602 13:-0.772665 14:-0.968418 15:-0.80735 16:-0.739496 17:-0.942146 18:-0.871454 19:-0.952744 20:-0.915275 21:-1 22:-1 23:-1 24:-1 25:-1 26:-0.902439 27:-0.917379 28:-0.917379 29:-0.933669 30:-0.933669 31:-0.419753 32:-0.975925 33:-0.953388 34:-1 35:-0.986862 
32768 1:-0.993864 3:-0.940988 5:-0.939461 6:-0.95092 7:-0.958373 8:-0.979846 9:-0.998953 10:-0.993137 11:-1 12:-1 13:-1 14:-1 15:-1 16:-1 17:-1 18:-1 19:-1 20:-1 21:-1 22:-1 23:-1 24:-1 25:-1 26:-0.95122 27:-0.989178 28:-0.989178 29:-0.99952 30:-0.99952 31:-0.91358 32:-0.951877 33:-0.981952 34:-0.998909 35:-0.993381 
32768 1:-0.946598 3:-0.984337 5:-1 6:-0.969325 7:-0.495241 8:-0.736877 9:-0.641411 10:-0.804644 11:-0.953488 12:-0.547127 13:-0.547127 14:-0.372667 15:-0.372667 16:-1 17:-1 18:-1 19:-1 20:-1 21:-1 22:-1 23:-1 24:-1 25:-1 26:-0.95122 27:-0.885563 28:-0.885563 29:-0.851035 30:-0.851035 31:-0.975309 32:-0.912435 33:-0.866613 34:-0.999636 35:-0.837104 
5116.498963517663 1:-0.992714 3:-0.98172 5:-0.670994 6:-0.93865 7:-0.985256 8:-0.980422 9:-1 10:-0.954821 11:-0.953488 12:-0.92147 13:-0.92147 14:-0.782084 15:-0.782084 16:-1 17:-1 18:-1 19:-1 20:-1 21:-1 22:-1 23:-1 24:-1 25:-1 26:-1 27:-1 28:-1 29:-1 30:-1 31:-0.901235 32:-0.985233 33:-0.995461 34:-1 35:-0.968883 
32768 1:-0.971685 3:-0.858828 5:-0.97334 6:-0.96319 7:-0.871197 8:-0.880423 9:-0.996159 10:-0.986847 11:-0.976744 12:-0.463725 13:-0.463725 14:-0.845535 15:-0.845535 16:-1 17:-1 18:-1 19:-1 20:-1 21:-1 22:-1 23:-1 24:-1 25:-1 26:-0.95122 27:-0.962558 28:-0.962558 29:-0.994885 30:-0.994885 31:-0.950617 32:-0.974533 33:-0.962786 34:-1 35:-0.995258 
18489.38442189321 1:-0.990678 3:-0.994682 5:-1 6:-0.969325 7:-0.984387 8:-0.954073 9:-0.999651 10:-0.955279 11:-0.976744 12:-0.994344 13:-0.994344 14:-1 15:-1 16:-0.991597 17:-0.812427 18:-0.845076 19:-0.741547 20:-0.778385 21:-1 22:-1 23:-1 24:-1 25:-1 26:-1 27:-1 28:-1 29:-1 30:-1 31:-0.962963 32:-0.992275 33:-0.995108 34:-0.999636 35:-0.988146 
5044.162212314209 1:-0.984298 3:-0.959155 5:-0.999301 6:-0.944785 7:-0.889101 8:-0.953585 9:-0.994763 10:-0.953448 11:-0.976744 12:-0.981581 13:-0.981581 14:-0.883721 15:-0.883721 16:-0.94958 17:-0.961717 18:-0.959288 19:-0.994873 20:-0.927515 21:-1 22:-1 23:-1 24:-1 25:-1 26:-0.95122 27:-0.989935 28:-0.989935 29:-1 30:-1 31:-0.987654 32:-0.940577 33:-0.9817 34:-0.998909 35:-0.999704 
2734.218239847096 1:-0.987806 3:-0.976975 5:-0.998021 6:-0.981595 7:-0.843393 8:-0.909873 9:-0.994763 10:-0.972664 11:-0.953488 12:-0.87382 13:-0.87382 14:-0.867069 15:-0.867069 16:-1 17:-1 18:-1 19:-1 20:-1 21:-1 22:-1 23:-1 24:-1 25:-1 26:-0.95122 27:-0.947664 28:-0.947664 29:-0.997762 30:-0.997762 31:-1 32:-0.932988 33:-0.979363 34:-0.993818 35:-0.998321 
32768 1:-0.963207 3:-0.958667 5:-0.94307 6:-0.883436 7:-0.998868 8:-0.945616 9:-1 10:-0.943955 11:-0.883721 12:-0.994681 13:-0.831134 14:-1 15:-0.629917 16:-1 17:-1 18:-1 19:-1 20:-1 21:-1 22:-1 23:-1 24:-1 25:-1 26:-0.95122 27:-0.956106 28:-0.956106 29:-0.700152 30:-0.700152 31:-0.839506 32:-0.998826 33:-0.992065 34:-1 35:-0.989628 
32768 1:-0.969884 3:-0.72242 5:-0.489726 6:-0.920245 7:-0.962507 8:-0.936407 9:-1 10:-0.925197 11:-0.906977 12:-0.897157 13:-0.884348 14:-0.666667 15:-0.66035 16:-1 17:-1 18:-1 19:-1 20:-1 21:-1 22:-1 23:-1 24:-1 25:-1 26:-0.95122 27:-0.989752 28:-0.989752 29:-0.994566 30:-0.994566 31:-0.901235 32:-0.960721 33:-0.963366 34:-1 35:-0.951892 
471.6279089892498 1:-0.967595 3:-0.997111 5:-1 6:-0.98773 7:-0.979384 8:-0.680668 9:-1 10:-0.943612 11:-0.976744 12:-0.992857 13:-0.992857 14:-1 15:-1 16:-0.991597 17:-0.280051 18:-0.405366 19:-0.7949 20:-0.824134 21:-1 22:-1 23:-1 24:-1 25:-1 26:-1 27:-1 28:-1 29:-1 30:-1 31:-1 32:-0.991593 33:-0.997411 34:-1 35:-1 
11065.92170127828 1:-0.917214 3:-0.981964 5:-0.999301 6:-0.96319 7:-0.949369 8:-0.650369 9:-0.997905 10:-0.780396 11:-0.953488 12:-0.992172 13:-0.992172 14:-0.999713 15:-0.999713 16:-1 17:-1 18:-1 19:-1 20:-1 21:-0.866667 22:-0.961416 23:-0.961416 24:-0.998947 25:-0.998947 26:-0.853659 27:-0.870271 28:-0.387235 29:-0.925677 30:-0.284584 31:-1 32:-0.94751 33:-0.983835 34:-0.997818 35:-0.999407 
32768 1:-0.983131 3:-0.978597 5:-0.997206 6:-0.97546 7:-0.979568 8:-0.900264 9:-1 10:-0.990964 11:-0.976744 12:-0.997017 13:-0.997017 14:-1 15:-1 16:-0.991597 17:-0.648814 18:-0.709942 19:-0.948448 20:-0.955796 21:-1 22:-1 23:-1 24:-1 25:-1 26:-1 27:-1 28:-1 29:-1 30:-1 31:-0.975309 32:-0.978818 33:-0.990409 34:-1 35:-0.99921 
32768 1:-0.970126 3:-0.993116 5:-1 6:-0.785276 7:-0.979279 8:-0.975476 9:-1 10:-0.994167 11:-0.511628 12:-0.9896 13:-0.976235 14:-0.999713 15:-0.9911 16:-1 17:-1 18:-1 19:-1 20:-1 21:-1 22:-1 23:-1 24:-1 25:-1 26:-1 27:-1 28:-1 29:-1 30:-1 31:-0.82716 32:-0.998826 33:-0.979926 34:-1 35:-0.992097 
32768 1:-0.976832 3:-0.998743 5:-1 6:-0.822086 7:-0.976356 8:-0.977173 9:-1 10:-0.990278 11:-0.534884 12:-0.989363 13:-0.970323 14:-0.999713 15:-0.963537 16:-1 17:-1 18:-1 19:-1 20:-1 21:-1 22:-1 23:-1 24:-1 25:-1 26:-0.95122 27:-0.988634 28:-0.988634 29:-0.997602 30:-0.997602 31:-0.901235 32:-0.998826 33:-0.996596 34:-1 35:-1 
29247.92885430512 1:-0.998382 3:-0.960402 5:-0.994528 6:-0.846626 7:-0.998868 8:-0.998166 9:-1 10:-0.999771 11:-0.976744 12:-0.999361 13:-0.999361 14:-1 15:-1 16:-1 17:-1 18:-1 19:-1 20:-1 21:-1 22:-1 23:-1 24:-1 25:-1 26:-1 27:-1 28:-1 29:-1 30:-1 31:-0.703704 32:-0.998826 33:-0.998378 34:-1 35:-0.999802 
3106.652022867243 1:-0.983318 3:-0.978738 5:-0.998952 6:-0.97546 7:-0.979568 8:-0.901367 9:-1 10:-0.989363 11:-0.976744 12:-0.997017 13:-0.997017 14:-1 15:-1 16:-0.991597 17:-0.652899 18:-0.713316 19:-0.936391 20:-0.945458 21:-1 22:-1 23:-1 24:-1 25:-1 26:-1 27:-1 28:-1 29:-1 30:-1 31:-0.975309 32:-0.978818 33:-0.990451 34:-1 35:-0.999704 
32768 1:-0.895962 3:-0.888578 5:-0.913965 6:-0.95092 7:-0.541159 8:-0.658261 9:-0.881285 10:-0.841588 11:-0.883721 12:-0.707053 13:-0.621534 14:-0.902383 15:-0.736721 16:-1 17:-1 18:-1 19:-1 20:-1 21:-1 22:-1 23:-1 24:-1 25:-1 26:-0.902439 27:-0.642162 28:-0.642162 29:-0.431152 30:-0.431152 31:-0.987654 32:-0.803988 33:-0.939636 34:-0.860364 35:-0.962067 
2565.17946650557 1:-0.894432 3:-0.958789 5:-0.984516 6:-0.96319 7:-0.884309 8:-0.554145 9:-0.953561 10:-0.791948 11:-0.976744 12:1 13:1 14:1 15:1 16:-1 17:-1 18:-1 19:-1 20:-1 21:-1 22:-1 23:-1 24:-1 25:-1 26:-0.804878 27:-0.963155 28:-0.816573 29:-0.834892 30:-0.774954 31:-0.987654 32:-0.933917 33:-0.979649 34:-0.976 35:-0.99348 
32768 1:-0.979097 3:-0.924293 5:-0.900111 6:-0.92638 7:-0.941496 8:-0.952473 9:-1 10:-0.975638 11:-0.883721 12:-0.974894 13:-0.973051 14:-0.998852 15:-0.965834 16:-0.991597 17:-0.782981 18:-0.820756 19:-0.841602 20:-0.864179 21:-1 22:-1 23:-1 24:-1 25:-1 26:-0.95122 27:-0.96226 28:-0.96226 29:-0.97075 30:-0.97075 31:-0.938272 32:-0.946391 33:-0.979868 34:-1 35:-0.985874 
32768 1:-0.993377 3:-0.908621 5:-0.940974 6:-0.93865 7:-0.984439 8:-0.982207 9:-1 10:-0.994739 11:-0.976744 12:-0.957779 13:-0.957779 14:-0.999713 15:-0.999713 16:-0.983193 17:-0.997517 18:-0.997949 19:-1 20:-1 21:-1 22:-1 23:-1 24:-1 25:-1 26:-0.95122 27:-0.988604 28:-0.988604 29:-1 30:-1 31:-0.925926 32:-0.983868 33:-0.984054 34:-1 35:-0.992887 
13501.83133145738 1:-0.993609 3:-0.929226 5:-0.991036 6:-0.957055 7:-0.949737 8:-0.976383 9:-0.999302 10:-0.998627 11:-1 12:-1 13:-1 14:-1 15:-1 16:-1 17:-1 18:-1 19:-1 20:-1 21:-1 22:-1 23:-1 24:-1 25:-1 26:-0.95122 27:-0.969171 28:-0.969171 29:-0.997922 30:-0.997922 31:-0.925926 32:-0.948001 33:-0.981582 34:-1 35:-0.998815 
32768 1:-0.99128 3:-0.96949 5:-1 6:-0.920245 7:-0.960954 8:-0.981592 9:-1 10:-1 11:-0.953488 12:-0.956912 13:-0.956912 14:-1 15:-1 16:-1 17:-1 18:-1 19:-1 20:-1 21:-1 22:-1 23:-1 24:-1 25:-1 26:-0.95122 27:-0.996326 28:-0.996326 29:-1 30:-1 31:-0.876543 32:-0.970357 33:-0.987391 34:-1 35:-1 
32768 1:-0.991015 3:-0.992262 5:-1 6:-0.96319 7:-0.920828 8:-0.962063 9:-0.996858 10:-0.970948 11:-0.930233 12:-0.933238 13:-0.93551 14:-0.892334 15:-0.830319 16:-1 17:-1 18:-1 19:-1 20:-1 21:-1 22:-1 23:-1 24:-1 25:-1 26:-0.95122 27:-0.983583 28:-0.983583 29:-0.99984 30:-0.99984 31:-0.975309 32:-0.977481 33:-0.989148 34:-1 35:-0.999704 
32768 1:-0.972586 3:-0.978578 5:-0.999185 6:-0.907975 7:-0.933361 8:-0.949352 9:-1 10:-0.989249 11:-0.883721 12:-0.957606 13:-0.892559 14:-1 15:-0.913867 16:-0.957983 17:-0.980881 18:-0.984068 19:-1 20:-1 21:-1 22:-1 23:-1 24:-1 25:-1 26:-0.902439 27:-0.970993 28:-0.970993 29:-1 30:-1 31:-0.962963 32:-0.985042 33:-0.992426 34:-1 35:-0.999901 
32768 1:-0.975278 3:-0.979469 5:-0.999301 6:-0.852761 7:-0.922223 8:-0.970774 9:-0.994064 10:-0.95951 11:-1 12:-1 13:-1 14:-1 15:-1 16:-1 17:-1 18:-1 19:-1 20:-1 21:-1 22:-1 23:-1 24:-1 25:-1 26:-0.95122 27:-0.975294 28:-0.975294 29:-0.80788 30:-0.80788 31:-0.716049 32:-0.919395 33:-0.974891 34:-0.994909 35:-0.968488 
32768 1:-0.991881 3:-0.997496 5:-1 6:-0.93865 7:-0.976462 8:-0.978188 9:-1 10:-0.980556 11:-0.860465 12:-0.987666 13:-0.984007 14:-0.999426 15:-0.932817 16:-1 17:-1 18:-1 19:-1 20:-1 21:-1 22:-1 23:-1 24:-1 25:-1 26:-1 27:-1 28:-1 29:-1 30:-1 31:-0.950617 32:-1 33:-0.976329 34:-1 35:-0.990912 
32768 1:-0.989756 3:-0.994185 5:-1 6:-0.96319 7:-0.983676 8:-0.956736 9:-1 10:-0.947272 11:-0.953488 12:-0.995566 13:-0.995566 14:-1 15:-1 16:-0.991597 17:-0.792848 18:-0.828905 19:-0.552661 20:-0.616422 21:-1 22:-1 23:-1 24:-1 25:-1 26:-1 27:-1 28:-1 29:-1 30:-1 31:-0.962963 32:-0.991538 33:-0.995528 34:-1 35:-1 
32768 1:-0.998118 3:-0.960402 5:-0.998952 6:-0.809816 7:-0.99871 8:-0.998264 9:-1 10:-0.999199 11:-0.976744 12:-0.994745 13:-0.994745 14:-0.932242 15:-0.932242 16:-1 17:-1 18:-1 19:-1 20:-1 21:-1 22:-1 23:-1 24:-1 25:-1 26:-1 27:-1 28:-1 29:-1 30:-1 31:-0.62963 32:-0.998662 33:-0.998613 34:-1 35:-1 
32768 1:-0.950057 3:-0.98444 5:-0.999185 6:-0.754601 7:-0.922802 8:-0.963994 9:-0.997556 10:-0.966831 11:-0.906977 12:-0.986215 13:-0.924307 14:-0.995119 15:-0.724088 16:-1 17:-1 18:-1 19:-1 20:-1 21:-1 22:-1 23:-1 24:-1 25:-1 26:-0.756098 27:-0.996954 28:-0.99638 29:-1 30:-1 31:-0.617284 32:-0.907276 33:-0.969587 34:-0.997455 35:-0.975205 
32768 1:-0.973645 3:-0.989477 5:-1 6:-0.97546 7:-0.954977 8:-0.844173 9:-1 10:-0.97884 11:-0.953488 12:-0.984017 13:-0.984017 14:-0.999139 15:-0.999139 16:-1 17:-1 18:-1 19:-1 20:-1 21:-0.866667 22:-0.58913 23:-0.58913 24:-0.861109 25:-0.861109 26:-1 27:-1 28:-1 29:-1 30:-1 31:-0.987654 32:-0.984114 33:-0.995108 34:-1 35:-1 
32768 1:-0.982338 3:-0.977359 5:-0.993713 6:-0.969325 7:-0.95553 8:-0.912985 9:-1 10:-0.989477 11:-0.953488 12:-0.987912 13:-0.987912 14:-1 15:-1 16:-0.991597 17:-0.650319 18:-0.711185 19:-0.930571 20:-0.940467 21:-1 22:-1 23:-1 24:-1 25:-1 26:-1 27:-1 28:-1 29:-1 30:-1 31:-0.975309 32:-0.972677 33:-0.989619 34:-1 35:-0.998222 
31918.48494424977 1:-0.982861 3:-0.982152 5:-0.994179 6:-0.97546 7:-0.979568 8:-0.898665 9:-1 10:-0.990278 11:-0.976744 12:-0.997017 13:-0.997017 14:-1 15:-1 16:-1 17:-1 18:-1 19:-1 20:-1 21:-0.866667 22:-0.734637 23:-0.734637 24:-0.943571 25:-0.943571 26:-1 27:-1 28:-1 29:-1 30:-1 31:-0.975309 32:-0.978818 33:-0.991476 34:-1 35:-0.998419 
32768 1:-0.979814 3:-0.98897 5:-0.999884 6:-0.97546 7:-0.951475 8:-0.880647 9:-0.999651 10:-0.992451 11:-0.930233 12:-0.983186 13:-0.987328 14:-1 15:-0.999426 16:-1 17:-1 18:-1 19:-1 20:-1 21:-1 22:-1 23:-1 24:-1 25:-1 26:-1 27:-1 28:-1 29:-1 30:-1 31:-0.987654 32:-0.221957 33:-0.760394 34:-0.940727 35:-0.983898 
32768 1:-0.980259 3:-0.989392 5:-1 6:-0.957055 7:-0.98128 8:-0.927052 9:-1 10:-0.982958 11:-0.930233 12:-0.978479 13:-0.943018 14:-0.908987 15:-0.9265 16:-1 17:-1 18:-1 19:-1 20:-1 21:-0.866667 22:-0.782165 23:-0.782165 24:-0.936498 25:-0.936498 26:-1 27:-1 28:-1 29:-1 30:-1 31:-0.962963 32:-0.998826 33:-0.997445 34:-1 35:-1 
32768 1:-0.959727 3:-0.671183 5:-0.74562 6:-0.858896 7:-0.912587 8:-0.950396 9:-0.827514 10:-0.946014 11:-0.976744 12:-0.937535 13:-0.937535 14:-0.999713 15:-0.999713 16:-0.94958 17:-0.988695 18:-0.989346 19:-0.999584 20:-0.999762 21:-1 22:-1 23:-1 24:-1 25:-1 26:-1 27:-1 28:-1 29:-1 30:-1 31:-0.802469 32:-0.883856 33:-0.948202 34:-0.805091 35:-0.934209 
32768 1:-0.998199 3:-0.960402 5:-0.998021 6:-0.834356 7:-0.998868 8:-0.998108 9:-1 10:-1 11:-0.976744 12:-0.994736 13:-0.994736 14:-1 15:-1 16:-1 17:-1 18:-1 19:-1 20:-1 21:-1 22:-1 23:-1 24:-1 25:-1 26:-1 27:-1 28:-1 29:-1 30:-1 31:-0.679012 32:-0.998826 33:-0.998487 34:-1 35:-1 
32768 1:-0.99548 3:-0.986007 5:-0.947261 6:-0.96319 7:-0.960717 8:-0.980909 9:-1 10:-0.991879 11:-1 12:-1 13:-1 14:-1 15:-1 16:-0.97479 17:-0.965691 18:-0.976427 19:-0.997228 20:-0.998099 21:-1 22:-1 23:-1 24:-1 25:-1 26:-0.95122 27:-0.995637 28:-0.995637 29:-1 30:-1 31:-0.975309 32:-0.998826 33:-0.995578 34:-1 35:-0.985083 
32768 1:-0.989018 3:-0.986635 5:-1 6:-0.981595 7:-0.892603 8:-0.918838 9:-0.878492 10:-0.879103 11:-0.976744 12:-0.997427 13:-0.997427 14:-1 15:-1 16:-0.991597 17:-0.950086 18:-0.958774 19:-0.510255 20:-0.580061 21:-1 22:-1 23:-1 24:-1 25:-1 26:-1 27:-1 28:-1 29:-1 30:-1 31:-0.987654 32:-0.641523 33:-0.889603 34:-0.873455 35:-0.965623 
32768 1:-0.931167 3:-0.98233 5:-0.831422 6:-0.889571 7:-0.877358 8:-0.892899 9:-0.870112 10:-0.923596 11:-0.906977 12:-0.758333 13:-0.747175 14:-0.641401 15:-0.647143 16:-0.92437 17:-0.965469 18:-0.967726 19:-0.948448 20:-0.949379 21:-1 22:-1 23:-1 24:-1 25:-1 26:-0.902439 27:-0.994558 28:-0.994558 29:-1 30:-1 31:-0.962963 32:-0.932443 33:-0.897261 34:-0.735273 35:-0.902598 
32768 1:-0.844816 3:-0.679896 5:-0.49869 6:-0.742331 7:-0.922144 8:-0.893309 9:-0.994763 10:-0.9459 11:-0.627907 12:-0.96141 13:-0.89411 14:-0.993396 15:-0.901235 16:-0.991597 17:-0.978079 18:-0.981894 19:-0.998753 20:-0.998931 21:-1 22:-1 23:-1 24:-1 25:-1 26:-0.853659 27:-0.957591 28:-0.944932 29:-0.888116 30:-0.83649 31:-0.728395 32:-0.992139 33:-0.904961 34:-0.999636 35:-0.949422 
32768 1:-0.956081 3:-0.67001 5:-0.890098 6:-0.90184 7:-0.965851 8:-0.923628 9:-1 10:-0.977696 11:-0.953488 12:-0.665434 13:-0.665434 14:-0.795579 15:-0.795579 16:-1 17:-1 18:-1 19:-1 20:-1 21:-1 22:-1 23:-1 24:-1 25:-1 26:-0.853659 27:-0.990073 28:-0.989736 29:-1 30:-0.999041 31:-0.864198 32:-0.951877 33:-0.960962 34:-1 35:-0.98459 
2468.24024970495 1:-0.979561 3:-0.980417 5:-0.996857 6:-0.981595 7:-0.944472 8:-0.848943 9:-0.995461 10:-0.896145 11:-0.930233 12:-0.980568 13:-0.817988 14:-1 15:-0.654895 16:-1 17:-1 18:-1 19:-1 20:-1 21:-1 22:-1 23:-1 24:-1 25:-1 26:-1 27:-1 28:-1 29:-1 30:-1 31:-1 32:-0.943006 33:-0.982448 34:-0.990182 35:-0.997333 
32768 1:-0.896626 3:-0.968412 5:-0.970429 6:-0.895706 7:-0.533076 8:-0.830223 9:-0.902584 10:-0.91822 11:-0.906977 12:-0.991424 13:-0.98253 14:-0.984496 15:-0.954637 16:-0.92437 17:-0.751808 18:-0.794855 19:-0.934451 20:-0.843384 21:-1 22:-1 23:-1 24:-1 25:-1 26:-1 27:-1 28:-1 29:-1 30:-1 31:-0.950617 32:-0.991839 33:-0.993132 34:-0.979273 35:-0.992789 
32768 1:-0.983934 3:-0.988426 5:-1 6:-0.93865 7:-0.96751 8:-0.956824 9:-1 10:-0.97987 11:-0.906977 12:-0.965242 13:-0.967322 14:-0.999426 15:-0.971289 16:-1 17:-1 18:-1 19:-1 20:-1 21:-0.866667 22:-0.827912 23:-0.827912 24:-0.822888 25:-0.822888 26:-1 27:-1 28:-1 29:-1 30:-1 31:-0.938272 32:-0.999427 33:-0.99599 34:-1 35:-0.993974 
32768 1:-0.98196 3:-0.980445 5:-0.999069 6:-0.969325 7:-0.984992 8:-0.911122 9:-1 10:-0.992565 11:-0.976744 12:-0.997017 13:-0.997017 14:-1 15:-1 16:-1 17:-1 18:-1 19:-1 20:-1 21:-0.866667 22:-0.720901 23:-0.720901 24:-0.942517 25:-0.942517 26:-1 27:-1 28:-1 29:-1 30:-1 31:-0.962963 32:-0.984441 33:-0.993149 34:-1 35:-0.999802 
32768 1:-0.948231 3:-0.922042 5:-0.9447 6:-0.96319 7:-0.781151 8:-0.78136 9:-0.97102 10:-0.941324 11:-0.930233 12:-0.967869 13:-0.857134 14:-0.997129 15:-0.939707 16:-1 17:-1 18:-1 19:-1 20:-1 21:-0.866667 22:-0.518824 23:-0.518824 24:-0.6378 25:-0.6378 26:-0.95122 27:-0.896714 28:-0.896714 29:-0.986734 30:-0.986734 31:-0.987654 32:-0.886094 33:-0.964922 34:-0.913818 35:-0.976588 
7190.57796229346 1:-0.860524 3:-0.997655 5:-1 6:-0.95092 7:-0.810297 8:-0.541844 9:-0.991271 10:-0.696557 11:-0.930233 12:-0.992629 13:-0.973735 14:-1 15:-0.997703 16:-0.991597 17:-0.0796603 18:-0.239856 19:-0.14066 20:-0.263145 21:-1 22:-1 23:-1 24:-1 25:-1 26:-1 27:-1 28:-1 29:-1 30:-1 31:-0.950617 32:1 33:-0.512609 34:1 35:-0.651289 
-32768 1:-0.999829 3:-0.995151 5:-1 6:-1 7:-0.986388 8:-0.994957 9:-1 10:-1 11:-1 12:-1 13:-1 14:-1 15:-1 16:-1 17:-1 18:-1 19:-1 20:-1 21:-1 22:-1 23:-1 24:-1 25:-1 26:-1 27:-1 28:-1 29:-1 30:-1 31:-1 32:-0.985888 33:-0.995654 34:-1 35:-1 
-22733.91171866039 1:-0.859764 3:-0.947131 5:-0.942022 6:-0.969325 7:-0.589131 8:-0.30902 9:-0.737081 10:-0.851653 11:-0.953488 12:-0.766361 13:-0.766361 14:-0.682171 15:-0.682171 16:-1 17:-1 18:-1 19:-1 20:-1 21:-0.866667 22:1 23:1 24:-0.237379 25:-0.237379 26:-0.95122 27:-0.997206 28:-0.997206 29:-0.99952 30:-0.99952 31:-0.987654 32:-0.899606 33:-0.969083 34:-0.909455 35:-0.975403 
-32768 1:-0.995076 3:-0.955872 5:-0.987543 6:-0.981595 7:-0.917721 8:-0.963604 9:-0.980796 10:-0.991422 11:-0.953488 12:-0.990439 13:-0.990439 14:-0.999139 15:-0.999139 16:-1 17:-1 18:-1 19:-1 20:-1 21:-1 22:-1 23:-1 24:-1 25:-1 26:-1 27:-1 28:-1 29:-1 30:-1 31:-0.987654 32:-0.824924 33:-0.946084 34:-0.946182 35:-0.98538 
-32768 1:-0.994983 3:-0.995076 5:-1 6:-0.98773 7:-0.986177 8:-0.950561 9:-1 10:-0.996912 11:-0.976744 12:-0.866385 13:-0.866385 14:-0.97617 15:-0.97617 16:-1 17:-1 18:-1 19:-1 20:-1 21:-1 22:-1 23:-1 24:-1 25:-1 26:-1 27:-1 28:-1 29:-1 30:-1 31:-0.987654 32:-0.992357 33:-0.997646 34:-1 35:-1 
-12613.37618007745 1:-0.898805 3:-0.945752 5:-0.935852 6:-0.742331 7:-0.955161 8:-0.930427 9:-1 10:-0.95688 11:-0.55814 12:-0.960817 13:-0.887505 14:-0.996268 15:-0.815676 16:-1 17:-1 18:-1 19:-1 20:-1 21:-1 22:-1 23:-1 24:-1 25:-1 26:-0.853659 27:-0.992852 28:-0.983384 29:-1 30:-0.97139 31:-0.753086 32:-0.980101 33:-0.973639 34:-1 35:-0.9837 
-32768 1:-0.843393 3:-0.89775 5:-0.907329 6:-0.92638 7:-0.512302 8:-0.643863 9:-0.722067 10:-0.817225 11:-0.953488 12:-0.266906 13:-0.266906 14:-0.318978 15:-0.318978 16:-0.983193 17:-0.789631 18:-0.826248 19:-0.879296 20:-0.896501 21:-1 22:-1 23:-1 24:-1 25:-1 26:-0.95122 27:-0.688092 28:-0.688092 29:-0.784864 30:-0.784864 31:-0.91358 32:-0.845996 33:-0.772633 34:-0.855273 35:-0.840265 
-4660.254308547148 1:-0.816469 3:-0.744723 5:-0.886024 6:-0.791411 7:-0.826279 8:-0.844982 9:-0.976955 10:-0.802127 11:-0.813953 12:-0.959877 13:-0.890479 14:-0.982773 15:-0.55412 16:-0.957983 17:-0.942057 18:-0.877106 19:-0.935837 20:-0.946052 21:-0.866667 22:-0.529046 23:-0.529046 24:0.541494 25:0.541494 26:-0.95122 27:-0.752153 28:-0.752153 29:0.669144 30:0.669144 31:-0.765432 32:-0.882764 33:-0.898615 34:-0.989091 35:-0.87563 
-32768 1:-0.944483 3:-0.69221 5:-0.699284 6:-0.889571 7:-0.909085 8:-0.913619 9:-0.986034 10:-0.963399 11:-0.860465 12:-0.940318 13:-0.896737 14:-0.942578 15:-0.930807 16:-0.941176 17:-0.972763 18:-0.959833 19:-0.993902 20:-0.980274 21:-1 22:-1 23:-1 24:-1 25:-1 26:-0.902439 27:-0.917379 28:-0.917379 29:-0.929194 30:-0.929194 31:-0.962963 32:-1 33:-0.931037 34:-1 35:-0.936284 
-32768 1:-0.875595 3:-0.89141 5:-0.905699 6:-0.705521 7:-0.9178 8:-0.924945 9:-0.989176 10:-0.923939 11:-0.767442 12:-0.984181 13:-0.948227 14:-1 15:-0.901522 16:-1 17:-1 18:-1 19:-1 20:-1 21:-1 22:-1 23:-1 24:-1 25:-1 26:-0.902439 27:-0.984876 28:-0.984876 29:-1 30:-1 31:-0.555556 32:-0.858389 33:-0.928145 34:-0.98 35:-0.922157 
-32768 1:-0.988433 3:-0.971854 5:-0.943652 6:-0.871166 7:-1 8:-0.98446 9:-1 10:-0.987533 11:-0.953488 12:-0.882314 13:-0.882314 14:-0.941717 15:-0.941717 16:-1 17:-1 18:-1 19:-1 20:-1 21:-0.866667 22:-0.999372 23:-0.999372 24:-1 25:-1 26:-1 27:-1 28:-1 29:-1 30:-1 31:-0.777778 32:-1 33:-0.995957 34:-1 35:-0.989726 
-32768 1:-0.977492 3:-0.925053 5:-0.901158 6:-0.791411 7:-0.98931 8:-0.980997 9:-1 10:-0.994853 11:-0.767442 12:-0.985878 13:-0.95517 14:-0.999713 15:-0.983348 16:-0.991597 17:-0.99699 18:-0.997514 19:-1 20:-1 21:-0.866667 22:-0.991548 23:-0.991548 24:-1 25:-1 26:-0.95122 27:-0.986277 28:-0.986277 29:-1 30:-1 31:-0.740741 32:-0.998089 33:-0.994149 34:-1 35:-0.995456 
-32768 1:-0.940988 3:-0.912082 5:-0.998021 6:-0.852761 7:-0.963587 8:-0.930222 9:-0.997905 10:-0.973693 11:-0.744186 12:-0.985978 13:-0.904327 14:-0.999426 15:-0.89377 16:-1 17:-1 18:-1 19:-1 20:-1 21:-1 22:-1 23:-1 24:-1 25:-1 26:-0.902439 27:-0.970602 28:-0.970602 29:-0.996164 30:-0.996164 31:-0.864198 32:-0.96427 33:-0.96092 34:-0.998909 35:-0.986565 
-32768 1:-0.979476 3:-0.938089 5:-0.994994 6:-0.895706 7:-0.966509 8:-0.966296 9:-1 10:-0.964086 11:-0.906977 12:-0.973251 13:-0.922336 14:-0.995693 15:-0.987367 16:-0.983193 17:-0.957811 18:-0.965154 19:-0.623198 20:-0.676906 21:-1 22:-1 23:-1 24:-1 25:-1 26:-0.902439 27:-0.991826 28:-0.991826 29:-0.99968 30:-0.99968 31:-0.888889 32:-0.991566 33:-0.98771 34:-1 35:-0.999605 
-32768 1:-0.914138 3:-0.812336 5:-0.923046 6:-0.877301 7:-0.941312 8:-0.879125 9:-1 10:-0.990049 11:-0.953488 12:-0.633558 13:-0.633558 14:-0.895205 15:-0.895205 16:-0.983193 17:-0.787763 18:-0.824705 19:-0.98628 20:-0.988236 21:-0.866667 22:-0.739647 23:-0.739647 24:-0.965691 25:-0.965691 26:-0.95122 27:-0.853494 28:-0.853494 29:-0.996803 30:-0.996803 31:-0.82716 32:-0.9569 33:-0.968721 34:-1 35:-0.995653 
-6594.200978633971 1:-0.786223 3:-0.826799 5:-0.790209 6:-0.693252 7:-0.902713 8:-0.876082 9:-0.990573 10:-0.932861 11:-0.697674 12:-0.920439 13:-0.875964 14:-0.974734 15:-0.907551 16:-1 17:-1 18:-1 19:-1 20:-1 21:-1 22:-1 23:-1 24:-1 25:-1 26:-0.95122 27:-0.928171 28:-0.928171 29:-0.397427 30:-0.397427 31:-0.555556 32:-0.958674 33:-0.895101 34:-1 35:-0.941322 
-1847.456450917743 1:-0.921745 3:-0.7274 5:-0.857268 6:-0.693252 7:-0.925251 8:-0.954639 9:-0.997207 10:-0.983644 11:-0.790698 12:-0.961045 13:-0.933302 14:-0.988229 15:-0.985357 16:-0.798319 17:-0.965365 18:-0.974963 19:-0.997506 20:-0.978492 21:-1 22:-1 23:-1 24:-1 25:-1 26:-0.95122 27:-0.757189 28:-0.757189 29:-0.815232 30:-0.815232 31:-0.802469 32:-0.99192 33:-0.979489 34:-1 35:-0.992295 
-24523.6196450505 1:-0.867092 3:0.338998 5:0.184469 6:-0.631902 7:-0.944998 8:-0.935587 9:-0.999302 10:-0.960654 11:-0.651163 12:-0.932818 13:-0.905504 14:-0.964686 15:-0.882285 16:-0.915966 17:-0.978776 18:-0.976378 19:-0.999307 20:-0.99287 21:-1 22:-1 23:-1 24:-1 25:-1 26:-0.902439 27:-0.990946 28:-0.990946 29:-0.998561 30:-0.998561 31:-0.592593 32:-0.969592 33:-0.948958 34:-1 35:-0.958708 
-32768 1:-0.86946 3:-0.968065 5:-0.999534 6:-0.815951 7:-0.911455 8:-0.875516 9:-0.997556 10:-0.882077 11:-0.744186 12:-0.938265 13:-0.872899 14:-0.906977 15:-0.702555 16:-0.991597 17:-0.828929 18:-0.858706 19:-0.913387 20:-0.925732 21:-1 22:-1 23:-1 24:-1 25:-1 26:-0.95122 27:-0.888931 28:-0.888931 29:-0.926636 30:-0.926636 31:-0.790123 32:-0.968036 33:-0.904373 34:-0.997818 35:-0.893016 
-32768 1:-0.930883 3:-0.900592 5:-0.930497 6:-0.797546 7:-0.917826 8:-0.939909 9:-0.97102 10:-0.977125 11:-0.790698 12:-0.961966 13:-0.917091 14:-0.975596 15:-0.933104 16:-0.932773 17:-0.979517 18:-0.982445 19:-0.987112 20:-0.980869 21:-1 22:-1 23:-1 24:-1 25:-1 26:-0.707317 27:-0.974513 28:-0.972271 29:-0.992648 30:-0.992328 31:-0.876543 32:-0.842257 33:-0.936585 34:-0.917818 35:-0.972044 
-32768 1:-0.995076 3:-0.955872 5:-0.986495 6:-0.981595 7:-0.917721 8:-0.963604 9:-0.979749 10:-0.990278 11:-0.953488 12:-0.990439 13:-0.990439 14:-1 15:-1 16:-1 17:-1 18:-1 19:-1 20:-1 21:-1 22:-1 23:-1 24:-1 25:-1 26:-1 27:-1 28:-1 29:-1 30:-1 31:-0.987654 32:-0.824924 33:-0.946084 34:-0.937818 35:-0.983108 
-32768 1:-0.995076 3:-0.955872 5:-0.998952 6:-0.981595 7:-0.917721 8:-0.963604 9:-0.996858 10:-0.997026 11:-0.953488 12:-0.990439 13:-0.990439 14:-0.998564 15:-0.998564 16:-1 17:-1 18:-1 19:-1 20:-1 21:-1 22:-1 23:-1 24:-1 25:-1 26:-1 27:-1 28:-1 29:-1 30:-1 31:-0.987654 32:-0.824924 33:-0.946084 34:-0.982909 35:-0.995357 
-32768 1:-0.954715 3:-0.985322 5:-1 6:-0.90184 7:-0.791788 8:-0.921247 9:-0.868715 10:-0.948187 11:-0.953488 12:-0.958518 13:-0.958518 14:-0.890324 15:-0.890324 16:-0.92437 17:-0.935652 18:-0.928214 19:-0.947339 20:-0.921098 21:-1 22:-1 23:-1 24:-1 25:-1 26:-0.853659 27:-0.984142 28:-0.98069 29:-0.999361 30:-0.999361 31:-0.975309 32:-0.957282 33:-0.957818 34:-1 35:-0.968586 
-32768 1:-0.995076 3:-0.955872 5:-0.986146 6:-0.981595 7:-0.917721 8:-0.963604 9:-0.978003 10:-0.990164 11:-0.953488 12:-0.990439 13:-0.990439 14:-0.99799 15:-0.99799 16:-1 17:-1 18:-1 19:-1 20:-1 21:-1 22:-1 23:-1 24:-1 25:-1 26:-1 27:-1 28:-1 29:-1 30:-1 31:-0.987654 32:-0.824924 33:-0.946084 34:-0.94 35:-0.9837 
-32768 1:-0.995076 3:-0.955872 5:-0.98731 6:-0.981595 7:-0.917721 8:-0.963604 9:-0.980098 10:-0.963056 11:-0.953488 12:-0.990439 13:-0.990439 14:-0.998564 15:-0.998564 16:-1 17:-1 18:-1 19:-1 20:-1 21:-1 22:-1 23:-1 24:-1 25:-1 26:-1 27:-1 28:-1 29:-1 30:-1 31:-0.987654 32:-0.824924 33:-0.946084 34:-0.767273 35:-0.936778 
-32768 1:-0.995076 3:-0.955872 5:-0.987194 6:-0.981595 7:-0.917721 8:-0.963604 9:-0.963687 10:-0.988562 11:-0.953488 12:-0.990439 13:-0.990439 14:-0.985932 15:-0.985932 16:-1 17:-1 18:-1 19:-1 20:-1 21:-1 22:-1 23:-1 24:-1 25:-1 26:-1 27:-1 28:-1 29:-1 30:-1 31:-0.987654 32:-0.824924 33:-0.946084 34:-0.944727 35:-0.984985 
-32768 1:-0.999474 3:-0.985059 5:-0.999069 6:-1 7:-0.958057 8:-0.98446 9:-0.997207 10:-0.999085 11:-1 12:-1 13:-1 14:-1 15:-1 16:-1 17:-1 18:-1 19:-1 20:-1 21:-1 22:-1 23:-1 24:-1 25:-1 26:-1 27:-1 28:-1 29:-1 30:-1 31:-1 32:-0.956518 33:-0.986609 34:-0.997091 35:-0.99921 
-32768 1:-0.843128 3:-1 5:-0.999418 6:-0.619632 7:-0.870223 8:-0.926388 9:-0.936103 10:-0.918907 11:-0.790698 12:-0.86602 13:-0.881319 14:-0.947459 15:-0.869653 16:-1 17:-1 18:-1 19:-1 20:-1 21:-1 22:-1 23:-1 24:-1 25:-1 26:-0.902439 27:-0.956229 28:-0.956229 29:-0.92296 30:-0.92296 31:-0.37037 32:-0.871463 33:-0.943932 34:-0.925455 35:-0.924726 
-32768 1:-0.901099 3:-0.903406 5:-0.940509 6:-0.877301 7:-0.956636 8:-0.860776 9:-0.999651 10:-0.926799 11:-0.906977 12:-0.634124 13:-0.476141 14:-0.535458 15:-0.190353 16:-0.991597 17:-0.758391 18:-0.800446 19:-0.852688 20:-0.873685 21:-1 22:-1 23:-1 24:-1 25:-1 26:-0.95122 27:-0.922453 28:-0.922453 29:-0.915927 30:-0.915927 31:-0.82716 32:-0.97991 33:-0.984693 34:-1 35:-0.996246 
-32768 1:-0.925643 3:-0.930764 5:-0.925956 6:-0.895706 7:-0.80361 8:-0.877877 9:-0.995112 10:-0.927942 11:-0.953488 12:-0.860729 13:-0.860729 14:-0.925926 15:-0.925926 16:-0.991597 17:-0.654915 18:-0.714981 19:-0.580516 20:-0.640307 21:-1 22:-1 23:-1 24:-1 25:-1 26:-0.902439 27:-0.953542 28:-0.953542 29:-1 30:-1 31:-0.851852 32:-0.798501 33:-0.91198 34:-0.990909 35:-0.940729 
-32768 1:-0.995076 3:-0.955872 5:-0.987776 6:-0.981595 7:-0.917721 8:-0.963604 9:-0.981145 10:-0.991422 11:-0.953488 12:-0.990439 13:-0.990439 14:-0.999139 15:-0.999139 16:-1 17:-1 18:-1 19:-1 20:-1 21:-1 22:-1 23:-1 24:-1 25:-1 26:-1 27:-1 28:-1 29:-1 30:-1 31:-0.987654 32:-0.824924 33:-0.946084 34:-0.946545 35:-0.985479 
-4229.871433585096 1:-0.790298 3:-0.695221 5:-0.789394 6:-0.773006 7:-0.884335 8:-0.836857 9:-0.834846 10:-0.88791 11:-0.813953 12:-0.888499 13:-0.746053 14:-0.818834 15:-0.607522 16:-0.957983 17:-0.818328 18:-0.874203 19:-0.791713 20:-0.860733 21:-1 22:-1 23:-1 24:-1 25:-1 26:-0.853659 27:-0.992721 28:-0.843292 29:-1 30:-0.842244 31:-0.740741 32:-0.934981 33:-0.904986 34:-0.913091 35:-0.921466 
-32768 1:-0.999727 3:-0.992234 5:-1 6:-1 7:-0.978199 8:-0.991923 9:-1 10:-1 11:-1 12:-1 13:-1 14:-1 15:-1 16:-1 17:-1 18:-1 19:-1 20:-1 21:-1 22:-1 23:-1 24:-1 25:-1 26:-1 27:-1 28:-1 29:-1 30:-1 31:-1 32:-0.977399 33:-0.99304 34:-1 35:-1 
-32768 1:-0.931868 3:-0.939853 5:-0.928517 6:-0.865031 7:-0.93394 8:-0.912429 9:-1 10:-0.98536 11:-0.906977 12:-0.990293 13:-0.980431 14:-1 15:-1 16:-0.966387 17:-0.823547 18:-0.857549 19:-0.945538 20:-0.954726 21:-0.733333 22:-0.791497 23:-0.791497 24:-0.941916 25:-0.941916 26:-0.95122 27:-0.980797 28:-0.980797 29:-0.998561 30:-0.998561 31:-0.864198 32:-0.969046 33:-0.981793 34:-1 35:-0.994666 
-32768 1:-0.999458 3:-0.9846 5:-0.999418 6:-1 7:-0.956767 8:-0.983982 9:-0.998254 10:-0.999428 11:-1 12:-1 13:-1 14:-1 15:-1 16:-1 17:-1 18:-1 19:-1 20:-1 21:-1 22:-1 23:-1 24:-1 25:-1 26:-1 27:-1 28:-1 29:-1 30:-1 31:-1 32:-0.95518 33:-0.986197 34:-0.998182 35:-0.999506 
-32768 1:-0.882635 3:-0.943801 5:-0.950172 6:-0.907975 7:-0.855979 8:-0.783145 9:-0.874302 10:-0.938122 11:-1 12:-1 13:-1 14:-1 15:-1 16:-0.907563 17:-0.751726 18:-0.810787 19:-0.871813 20:-0.911829 21:-1 22:-1 23:-1 24:-1 25:-1 26:-1 27:-1 28:-1 29:-1 30:-1 31:-0.950617 32:-0.9364 33:-0.973513 34:-0.989818 35:-0.99022 
-32768 1:-0.949282 3:-0.947468 5:-0.999185 6:-0.797546 7:-0.927884 8:-0.955907 9:-0.945531 10:-0.973579 11:-0.953488 12:-0.979829 13:-0.979829 14:-0.98708 15:-0.98708 16:-0.815126 17:-0.977812 18:-0.968179 19:-0.959396 20:-0.963995 21:-1 22:-1 23:-1 24:-1 25:-1 26:-0.95122 27:-0.975256 28:-0.975256 29:-0.963238 30:-0.963238 31:-0.901235 32:-0.986243 33:-0.970402 34:-1 35:-0.990517 
-32768 1:-0.999959 3:-0.998846 5:-0.999767 6:-1 7:-0.996761 8:-0.9988 9:-0.999302 10:-0.999771 11:-1 12:-1 13:-1 14:-1 15:-1 16:-1 17:-1 18:-1 19:-1 20:-1 21:-1 22:-1 23:-1 24:-1 25:-1 26:-1 27:-1 28:-1 29:-1 30:-1 31:-1 32:-0.996643 33:-0.998966 34:-0.999273 35:-0.999802 
-32768 1:-0.897156 3:-0.958536 5:-0.999301 6:-0.791411 7:-0.963086 8:-0.913131 9:-0.999302 10:-0.928857 11:-0.837209 12:-0.977685 13:-0.920338 14:-0.996555 15:-0.861326 16:-0.941176 17:-0.88894 18:-0.860684 19:-0.834534 20:-0.737508 21:-1 22:-1 23:-1 24:-1 25:-1 26:-0.756098 27:-0.991466 28:-0.991122 29:-1 30:-0.99984 31:-0.814815 32:-0.973523 33:-0.955095 34:-1 35:-0.982021 
-32768 1:-0.922383 3:-0.950432 5:-0.928634 6:-0.723926 7:-0.944866 8:-0.950122 9:-1 10:-0.974151 11:-0.837209 12:-0.947625 13:-0.913478 14:-0.973299 15:-0.969279 16:-0.97479 17:-0.953459 18:-0.96167 19:-0.914634 20:-0.942012 21:-1 22:-1 23:-1 24:-1 25:-1 26:-0.902439 27:-0.907345 28:-0.907345 29:-0.839527 30:-0.839527 31:-0.592593 32:-0.982039 33:-0.968889 34:-1 35:-0.982021 
-32768 1:-0.951699 3:-0.974264 5:-0.949706 6:-0.828221 7:-0.907453 8:-0.950766 9:-0.996858 10:-0.972664 11:-1 12:-1 13:-1 14:-1 15:-1 16:-0.941176 17:-0.979598 18:-0.968565 19:-0.998753 20:-0.976353 21:-1 22:-1 23:-1 24:-1 25:-1 26:-0.95122 27:-0.957186 28:-0.957186 29:-0.928554 30:-0.928554 31:-0.753086 32:-0.895484 33:-0.958037 34:-0.996727 35:-0.975995 
-32768 1:-0.987676 3:-0.922914 5:-0.952849 6:-0.92638 7:-0.976462 8:-0.971974 9:-1 10:-0.980098 11:-0.883721 12:-0.980367 13:-0.955498 14:-0.998852 15:-0.993971 16:-1 17:-1 18:-1 19:-1 20:-1 21:-1 22:-1 23:-1 24:-1 25:-1 26:-0.95122 27:-0.974031 28:-0.974031 29:-0.719811 30:-0.719811 31:-0.925926 32:-0.998826 33:-0.988517 34:-1 35:-0.994369 
-32768 1:-0.947969 3:-0.971047 5:-0.998836 6:-0.92638 7:-0.921275 8:-0.881681 9:-0.969274 10:-0.89157 11:-0.930233 12:-0.86602 13:-0.725107 14:-0.974734 15:-0.583405 16:-1 17:-1 18:-1 19:-1 20:-1 21:-1 22:-1 23:-1 24:-1 25:-1 26:-0.902439 27:-0.9589 28:-0.9589 29:-0.909694 30:-0.909694 31:-0.91358 32:-0.93247 33:-0.940586 34:-0.938909 35:-0.915539 
-32768 1:-0.995076 3:-0.955872 5:-0.986844 6:-0.981595 7:-0.917721 8:-0.963604 9:-0.978701 10:-0.990507 11:-0.953488 12:-0.990439 13:-0.990439 14:-0.998852 15:-0.998852 16:-1 17:-1 18:-1 19:-1 20:-1 21:-1 22:-1 23:-1 24:-1 25:-1 26:-1 27:-1 28:-1 29:-1 30:-1 31:-0.987654 32:-0.824924 33:-0.946084 34:-0.941091 35:-0.983997 
-32768 1:-0.960315 3:-0.895884 5:-0.912917 6:-0.865031 7:-0.932123 8:-0.948991 9:-0.997207 10:-0.980899 11:-0.767442 12:-0.954568 13:-0.925009 14:-0.962389 15:-0.92449 16:-0.97479 17:-0.985129 18:-0.961376 19:-0.998476 20:-0.982651 21:-1 22:-1 23:-1 24:-1 25:-1 26:-0.902439 27:-0.985871 28:-0.985871 29:-0.997283 30:-0.997283 31:-0.91358 32:-0.978764 33:-0.983768 34:-1 35:-0.990813 
-32768 1:-0.995076 3:-0.955872 5:-0.988125 6:-0.981595 7:-0.917721 8:-0.963604 9:-0.981145 10:-0.991536 11:-0.953488 12:-0.990439 13:-0.990439 14:-0.999139 15:-0.999139 16:-1 17:-1 18:-1 19:-1 20:-1 21:-1 22:-1 23:-1 24:-1 25:-1 26:-1 27:-1 28:-1 29:-1 30:-1 31:-0.987654 32:-0.824924 33:-0.946084 34:-0.947273 35:-0.985676 
-2384.182567892619 1:-0.93641 3:-0.929958 5:-0.876011 6:-0.711656 7:-0.940917 8:-0.960843 9:-0.997905 10:-0.96969 11:-0.883721 12:-0.984381 13:-0.936805 14:-0.99799 15:-0.935113 16:-0.747899 17:-0.980962 18:-0.978606 19:-0.999169 20:-0.978254 21:-1 22:-1 23:-1 24:-1 25:-1 26:-0.707317 27:-0.985718 28:-0.949517 29:-0.997283 30:-0.866219 31:-0.925926 32:-0.984851 33:-0.9836 34:-1 35:-0.984886 
-32768 1:-0.931138 3:-0.953846 5:-0.942255 6:-0.865031 7:-0.935098 8:-0.911492 9:-1 10:-0.963171 11:-0.883721 12:-0.865646 13:-0.792407 14:-0.847832 15:-0.798737 16:-1 17:-1 18:-1 19:-1 20:-1 21:-1 22:-1 23:-1 24:-1 25:-1 26:-0.853659 27:-0.975011 28:-0.948805 29:-0.991689 30:-0.969472 31:-0.82716 32:-0.994623 33:-0.958062 34:-1 35:-0.97807 
-32768 1:-0.995076 3:-0.955872 5:-0.986495 6:-0.981595 7:-0.917721 8:-0.963604 9:-0.97905 10:-0.990735 11:-0.953488 12:-0.990439 13:-0.990439 14:-0.999139 15:-0.999139 16:-1 17:-1 18:-1 19:-1 20:-1 21:-1 22:-1 23:-1 24:-1 25:-1 26:-1 27:-1 28:-1 29:-1 30:-1 31:-0.987654 32:-0.824924 33:-0.946084 34:-0.942182 35:-0.984293 
